/**
 * OpenWurli DSP — MLP v2 neural network weights
 * Generated from openwurli-dsp mlp_weights.rs (GPL v3)
 * Architecture: Input(2) -> Dense(8, ReLU) -> Dense(8, ReLU) -> Dense(11, Linear)
 */
#pragma once

namespace openWurli
{

static constexpr int MLP_HIDDEN_SIZE = 8;
static constexpr int MLP_N_OUTPUTS = 11;

static constexpr double W1[8][2] = {
	{-1.67736375331878662e+00, 9.34201836585998535e-01},
	{-2.49582622200250626e-02, -2.83486526459455490e-02},
	{1.71212160587310791e+00, 1.39993131160736084e-01},
	{1.94816410541534424e+00, -1.17479825019836426e+00},
	{-4.32544591603800654e-04, -8.86058318428695202e-04},
	{-9.70149179920554161e-04, -3.56034748256206512e-03},
	{2.19528192246798426e-06, -5.35775052412645891e-06},
	{1.88566482067108154e+00, -3.70993055403232574e-02},
};

static constexpr double B1[8] = {
	6.34567499160766602e-01, -2.16335169970989227e-02,
	-8.15927386283874512e-01, 4.60072478745132685e-04,
	-6.57497905194759369e-03, -1.27577576786279678e-02,
	-4.31600847150548361e-06, -6.92196786403656006e-01,
};

static constexpr double W2[8][8] = {
	{ 2.37290167808532715e+00, 1.88370712567120790e-03, 1.60422158241271973e+00, 1.83717954158782959e+00, 6.90517197199369548e-07,-1.96384120499715209e-04,-6.34995203085964022e-08, 1.56231582164764404e+00},
	{ 1.07166790962219238e+00,-1.53709773439913988e-03,-2.40024518966674805e+00,-6.40666246414184570e-01, 2.99833780026403929e-09,-2.38785796682350338e-04,-1.15430417224615667e-07,-1.34986507892608643e+00},
	{-9.63806807994842529e-01,-1.12066941801458597e-03,-7.40285515785217285e-01,-9.34585273265838623e-01, 1.58993107568505820e-09,-4.07309271395206451e-04,-1.18222749279084383e-06,-8.71013283729553223e-01},
	{-6.20713562563463670e-40,-2.41460540984737879e-40,-2.03970240697515237e-09,-1.09828317818028154e-06,-1.68604231227561990e-39, 1.38375420755147036e-39,-1.63883256701251681e-40,-6.71791013928668690e-08},
	{-2.22287908196449280e-01, 1.81900302413851023e-03,-1.83875870704650879e+00,-9.39103484153747559e-01, 7.92568233265456001e-09,-9.37165605137124658e-05, 1.44805630952760112e-06,-1.30273401737213135e+00},
	{-2.26402068138122559e+00,-2.00186204165220261e-03,-3.49880069494247437e-01,-7.02829420566558838e-01,-4.24195059167686850e-06, 2.55853490671142936e-04, 2.31413537221669685e-07,-6.82558238506317139e-01},
	{-1.93594157695770264e+00,-1.29956810269504786e-03, 9.92562472820281982e-01, 1.02363538742065430e+00,-1.79213266449096409e-08, 3.19541395583655685e-05,-1.55314666017147829e-07, 9.90744769573211670e-01},
	{-2.63809823989868164e+00, 2.37572327023372054e-04,-2.66729384660720825e-01,-6.48405194282531738e-01,-1.43881319672800601e-04,-3.00090832752175629e-05, 1.01751226111446158e-07,-5.70318102836608887e-01},
};

static constexpr double B2[8] = {
	-1.14590740203857422e+00, 7.53890648484230042e-02,
	 1.08002722263336182e+00,-5.25697123521240428e-06,
	 6.34663105010986328e-01, 1.65469121932983398e+00,
	-4.05026197433471680e-01, 1.45117461681365967e+00,
};

static constexpr double W3[11][8] = {
	{ 5.80249369144439697e-01, 1.60964679718017578e+00, 3.56461673974990845e-01, 9.97836610476415740e-41, 1.74401247501373291e+00,-1.07987664639949799e-01,-3.37191343307495117e-01,-1.42267668247222900e+00},
	{ 5.69926619529724121e-01, 1.71781527996063232e+00, 5.31105458736419678e-01,-1.83962462396561985e-40, 1.64567518234252930e+00,-4.65078264474868774e-01,-3.06071549654006958e-01,-9.93787527084350586e-01},
	{ 1.31062044069835816e-40,-7.48353635783418283e-40, 3.16011076637221045e-38,-1.81092182752085462e-39,-1.53471160695809706e-38,-8.10488610990044997e-40,-4.46357001139848306e-40, 1.96500440276261853e-39},
	{-1.76094541462172719e-37, 1.74833703550717964e-39,-1.33249470972646855e-39,-3.70399617881121597e-40, 1.04505336223184045e-39, 1.53710110109946374e-39, 1.33853430610770851e-40,-1.56567077419011811e-41},
	{ 7.24273722972460626e-40, 1.87226506909513781e-39,-4.40599962580954801e-38,-5.73495409509574634e-40, 1.27076751237296036e-40,-4.84403655744731415e-40, 7.76944328351037526e-40,-5.03178252569755314e-40},
	{ 1.00311648845672607e+00,-4.31646585464477539e-01, 4.10453677177429199e-01, 1.73054755150257609e-40,-1.14568538963794708e-01,-1.51406812667846680e+00,-3.24559748172760010e-01,-2.13257884979248047e+00},
	{ 1.09168577194213867e+00,-3.23916286230087280e-01, 5.95765888690948486e-01,-1.16126024128136888e-39, 7.20893740653991699e-01,-5.59417605400085449e-01,-6.48968070745468140e-02,-2.52835130691528320e+00},
	{ 1.02156479737282787e-39,-7.21258128677233620e-40,-8.96496106834909294e-40,-2.04127988077274698e-39,-1.26825918812181894e-40, 1.88111707149427768e-40,-1.42804925200877783e-40, 1.10379299125940813e-39},
	{ 8.35132294199169814e-38, 1.84154720545867350e-39,-9.20988001394378447e-40,-6.00055620602387217e-40, 1.11452413489920758e-39,-2.31713108866894452e-40, 1.46936513593093074e-39,-7.12543453527597583e-40},
	{-1.49258885538018593e-39,-1.35265378943424537e-39,-7.45359060965156149e-40, 1.53186725133521055e-39, 2.04017846017978767e-39,-1.00395692164920081e-38, 7.80056612240302944e-40,-1.08628236564920522e-39},
	{ 2.77667093276977539e+00, 1.70799982547760010e+00,-2.56910896301269531e+00,-3.23161846648732014e-40,-4.60367590188980103e-01,-3.08774948120117188e+00,-3.46498250961303711e+00,-1.56440901756286621e+00},
};

static constexpr double B3[11] = {
	-7.44288504123687744e-01,-7.84586668014526367e-01,
	 7.79671255162613620e-40,-6.22109255833931188e-40,
	 1.26413796933823965e-39,-2.55038708448410034e-01,
	-1.03168678283691406e+00, 1.99109798146681095e-39,
	-1.55545390708672587e-39,-1.41250885203941561e-39,
	 1.53534501791000366e-01,
};

static constexpr double TARGET_MEANS[11] = {
	3.05523467063903809e+00, 2.91607260704040527e+00,
	0.0, 0.0, 0.0,
	2.37499594688415527e+00, 5.01115465164184570e+00,
	0.0, 0.0, 0.0,
	1.25574231147766113e+00,
};

static constexpr double TARGET_STDS[11] = {
	5.50307321548461914e+00, 5.38204193115234375e+00,
	1.0, 1.0, 1.0,
	3.51287722587585449e+00, 6.95919370651245117e+00,
	1.0, 1.0, 1.0,
	4.25059974193572998e-01,
};

} // namespace openWurli
